//Numpy array shape [6, 4, 8]
//Min -3.679910659790
//Max 0.754164457321
//Number of zeros 0

#ifndef W5_H_
#define W5_H_

#ifndef __SYNTHESIS__
model_default_t w5[192];
#else
model_default_t w5[192] = {-0.2523585260, 0.0037983381, -0.1101827770, -0.1391922981, -0.2654237747, -0.0992189944, -0.0684756488, -0.0106187854, -0.2076511979, 0.0101874368, -0.0566213615, 0.0253958646, -0.1206469014, 0.1868829429, 0.0095345741, 0.2440899163, -0.0108965058, -0.1561173797, -0.1845359951, -0.2534034848, -0.2137557864, -0.2793840766, 0.0229046680, 0.1322873533, 0.2443759739, -0.1603807956, 0.0020922380, 0.1733719260, -0.3158726096, 0.1019656137, -0.2336424142, -0.2785058618, -0.0967398658, -0.0571275316, -0.2152737826, -0.3133421242, -0.1958052069, -0.1312548667, -0.1200115755, 0.1843635589, 0.1952898800, -0.1823881119, 0.2015755922, -0.2870603502, 0.0230703577, -0.0967626423, -0.1747523099, 0.2019076198, -2.7563908100, -0.4534172714, 0.5015894175, -3.6799106598, -2.0433554649, -0.7359665632, 0.3847840726, -2.5119585991, -1.2750229836, -0.5725731254, 0.1406808197, -2.3561892509, -1.0943539143, -0.6068812013, -0.0789927691, -2.1210162640, -1.1054545641, -0.6254743934, 0.3832008839, -3.0979206562, -2.6039302349, -0.5910890102, 0.7474163771, -3.5998692513, -0.0444083028, -0.2168665528, -0.2452944815, -0.0398362428, 0.0175314285, 0.1417814642, -0.6639443040, -0.1589829922, 0.1481259316, 0.0471251383, -0.0750463679, 0.1707589924, -0.0240477771, -0.2610438466, -0.0366788544, 0.1208071187, 0.2378565222, 0.0638321564, -0.4220934808, -0.0048477021, -0.1931118369, -0.3256030679, -0.7939965725, -0.1048259884, 0.0045337682, -0.1328055412, -0.0360108800, 0.0048725079, -0.1950609982, -0.2935240269, 0.0565645173, 0.0015844657, -0.1214811653, 0.2177444249, -0.1077281013, 0.0260384586, 0.0991885141, -0.1655069143, -0.2069258541, 0.1982958615, 0.0844703466, -0.1576608866, -0.2267154306, 0.0278524496, -0.2603116333, -0.1343777180, -0.0674654469, -0.1664273143, -0.4553039074, 0.3038701713, -1.2803297043, 0.2009860277, -0.6711874604, 0.3550808728, -0.9742485285, -0.1865461618, -0.1832268387, 0.4128952324, -1.2387051582, -0.0889158398, -0.6881300211, 0.3087549210, -1.3320355415, -0.2423797846, -0.1858427376, 0.0041293912, -1.3578772545, 0.1181137413, -0.4344523251, 0.2915598750, -0.8242145777, 0.0302750487, -2.4750678539, 0.6712747812, -0.4847889543, -2.5921957493, -1.6074721813, 0.5244937539, -0.4510576725, -2.2243080139, -1.2580791712, 0.3931715488, -0.2376620322, -1.8580735922, -0.0462792292, 0.7541644573, -0.0162623078, -1.0512193441, -1.6530044079, 0.5613310337, 0.1702188253, -0.7568849921, -0.6464627385, 0.6675196886, 0.0768274218, -0.1670241058, -0.7263081074, 0.1301988363, -1.3892844915, -0.1333772093, -0.8440254927, 0.4089330137, -1.2690651417, -0.1642870903, -0.5149637461, 0.4827145338, -1.0122259855, -0.2605944574, -0.3847618699, 0.2711692154, -0.8678689599, -0.2299080640, -1.5238580704, 0.5026533604, -1.5017114878, 0.1107128114, -0.2432443202, 0.0669124573, -1.2352116108, -0.1533978432};
#endif

#endif
